digraph Tree {
node [shape=box] ;
0 [label="MedInc <= 5.045\nmse = 1.333\nsamples = 15480\nvalue = 2.07"] ;
1 [label="MedInc <= 3.13\nmse = 0.834\nsamples = 12226\nvalue = 1.736"] ;
0 -> 1 [labeldistance=2.5, labelangle=45, headlabel="True"] ;
2 [label="AveRooms <= 4.206\nmse = 0.57\nsamples = 6161\nvalue = 1.376"] ;
1 -> 2 ;
3 [label="mse = 0.715\nsamples = 2258\nvalue = 1.668"] ;
2 -> 3 ;
4 [label="mse = 0.409\nsamples = 3903\nvalue = 1.207"] ;
2 -> 4 ;
5 [label="AveOccup <= 2.396\nmse = 0.835\nsamples = 6065\nvalue = 2.103"] ;
1 -> 5 ;
6 [label="mse = 1.264\nsamples = 1460\nvalue = 2.814"] ;
5 -> 6 ;
7 [label="mse = 0.487\nsamples = 4605\nvalue = 1.877"] ;
5 -> 7 ;
8 [label="MedInc <= 6.82\nmse = 1.224\nsamples = 3254\nvalue = 3.322"] ;
0 -> 8 [labeldistance=2.5, labelangle=-45, headlabel="False"] ;
9 [label="AveOccup <= 2.589\nmse = 0.902\nsamples = 2256\nvalue = 2.921"] ;
8 -> 9 ;
10 [label="mse = 1.028\nsamples = 661\nvalue = 3.576"] ;
9 -> 10 ;
11 [label="mse = 0.599\nsamples = 1595\nvalue = 2.649"] ;
9 -> 11 ;
12 [label="MedInc <= 8.802\nmse = 0.763\nsamples = 998\nvalue = 4.229"] ;
8 -> 12 ;
13 [label="mse = 0.751\nsamples = 666\nvalue = 3.941"] ;
12 -> 13 ;
14 [label="mse = 0.288\nsamples = 332\nvalue = 4.807"] ;
12 -> 14 ;
}